0.6573391233127307
-0.698971006806461
-0.43632103267225447
-0.5123960424596785
0.5844591934904652
0.542979798597651
0.6616997573507711
-0.85704057086243
0.3035958026654308
-0.6676886139471073
1.714196295385197
-0.006903281251570698
-0.7461132921016262
-3.4802746495464727
3.57427694395085
-1.4369857359317444
1.4770764701427401
-13.330677657813188
-21.675384351151678
-0.08010406866943444
1.6728740602065713
-0.04352539239957516
2.5388998144130346
0.1426397642398342
0.6740574343703319
-0.3760844621859343
-1.3734237479074778
0.0010046090429600666
0.7804839675780603
-3.956145781109468
5.498398492403029
-4.440906215035655
7.529765932833514
-10.23108315920655
-24.14607945307168
0.035521675918342675
0.26321955606518654
0.10377403974215503
0.11778014745123543
1.032886261485022
-1.9146624959289449
0.07550174374536575
1.7390649289540556
-0.019298451375419374
-6.2822227339469
0.11408829062940283
2.0842181492177385
1.3851753821260702
-3.350705923217508
0.14916584700709076
-6.605031329159809
-0.17127343356973174
-5.202280844057866
-0.07790656612911527
-0.9172891739550023
-1.1116046617980562
2.310660290568038
0.18864633656200744
-3.540498900958886
0.04375456603315482
-1.4983708257267958
0.018829578693178268
-0.42650873870421296
1.1819992459441038
-3.146535918375813
0.07077290934341053
0.6445851833926706
-0.06387867149774407
-7.338548008952028
0.11734710026060334
-8.390462695033783
0.5824885924183416
-2.7795102569374848
0.3983235703893672
5.047603208057352
0.021305414376314606
-13.866288407023374
0.6009585782776413
-26.850017003146007
-7.822782292710228
-0.47292044955805973
7.775309420267543
7.63323514245134
0.030049947945248883
-2.159021404611793
-0.07478609678973833
-0.5169720467486715
0.5637709804167498
-2.2226690200573995
0.1936331532328086
1.6001634159412468
