-0.43042938560036753
-0.2747970825223874
-0.24962484721834002
0.6195857912883651
0.46741215540373476
-0.46050002379784943
0.7465510107259506
2.1843338521761724
-2.2061620597246123
0.9013105681682768
1.2029584827169428
-0.07727093033458958
-2.3255016497926566
0.019265515150490083
-2.202664593248663
1.2298283681694946
-1.7043755302628598
0.5017553916664905
2.398173841349608
0.011803048257042937
-3.9734839898712524
-0.041256579848434
-0.01882962350113174
-5.007377915227048
-7.429151103457904
0.3905784903192193
-0.2622386024534652
0.12803197661591073
-0.5365197161785231
-0.19948283626035046
-0.46864514385314016
-4.861169698763651
1.366470579198645
0.7263632299673418
2.5096631191967957
-0.01267945279495888
-1.6085172691341767
-0.12267850994503209
-0.21558442790565188
-0.7848430036961856
1.6289961786751668
0.2328352023236168
-1.7710963211699384
0.030306368834307998
-0.6643721669963587
0.13006177792841928
-2.0371080222205498
-1.4326676328462689
-1.2944134742362683
0.676585566762007
3.1620449187849435
0.008186986389437349
-5.504255945585966
-6.509155232328036E-4
-1.1074578112434335
-0.8374499023250166
-1.6870541800825662
0.3775634971599273
0.4686581121942559
0.043382965201687176
-3.8581363019343
-0.05899719545577051
-3.8008907450662317
-1.9167246583741022
-1.5931903205315678
0.29510888921508366
-2.4461969339443295
-0.014092333417799686
-0.8319097244894293
-1.9667139200856774
2.208483033897719
-1.1235568389159059
0.4487929550498294
-10.394832087881255
-15.970883362370467
0.01937250737458638
-0.9640019383417275
-1.110512636715569
2.0007804317618207
-1.2586768216179376
0.42184039325008166
-3.6647271357700504
-8.386608348499438
0.06316535427420111
-2.850510352690353
-0.045984305267926295
1.268994934411652
-0.328921143546901
-1.7063144504050947
-0.066559024007122
-1.9773192439999236
